solver_type L2R_L2LOSS_SVC_DUAL
nr_class 2
label 1 -1
nr_feature 135
bias -1
w
0.0115584921589774 
0.0115584921589774 
0.0115584921589774 
0.0115584921589774 
-0.003021055199416249 
0.0115584921589774 
0.0115584921589774 
-0.0202647901575389 
-0.00568524279914525 
0.0115584921589774 
0.0115584921589774 
0.0115584921589774 
-0.00568524279914525 
0.0115584921589774 
0.0115584921589774 
0.0115584921589774 
0.0115584921589774 
0.0115584921589774 
0.0115584921589774 
0.0115584921589774 
0.0115584921589774 
0.0115584921589774 
0.0115584921589774 
0.0115584921589774 
0.0115584921589774 
0.0115584921589774 
0.0115584921589774 
0.0115584921589774 
0.0115584921589774 
0.0115584921589774 
0.0115584921589774 
0.0115584921589774 
0.0115584921589774 
0.0115584921589774 
0.0115584921589774 
0.0115584921589774 
0.0115584921589774 
0.0115584921589774 
0.0115584921589774 
0.0115584921589774 
0.0115584921589774 
0.0115584921589774 
0.0115584921589774 
0.0115584921589774 
0.0115584921589774 
0.0115584921589774 
0.0115584921589774 
0.0115584921589774 
0.0115584921589774 
0.0115584921589774 
0.0115584921589774 
0.0115584921589774 
0.0115584921589774 
0.0115584921589774 
0.0115584921589774 
0.0115584921589774 
0.0115584921589774 
0.0115584921589774 
0.0115584921589774 
0.0115584921589774 
0.0115584921589774 
0.0115584921589774 
0.0115584921589774 
0.0115584921589774 
0.0115584921589774 
-0.01724373495812265 
-0.01724373495812265 
-0.01724373495812265 
-0.01724373495812265 
-0.01724373495812265 
-0.01724373495812265 
-0.01724373495812265 
-0.01724373495812265 
-0.01724373495812265 
-0.01724373495812265 
-0.01724373495812265 
-0.01724373495812265 
-0.01724373495812265 
-0.01724373495812265 
-0.01724373495812265 
-0.01724373495812265 
-0.01724373495812265 
-0.01724373495812265 
-0.01724373495812265 
-0.01724373495812265 
-0.01724373495812265 
-0.01724373495812265 
-0.01724373495812265 
-0.01724373495812265 
-0.01724373495812265 
-0.01724373495812265 
-0.01724373495812265 
-0.01724373495812265 
-0.01724373495812265 
-0.01457954735839365 
-0.01457954735839365 
-0.01457954735839365 
-0.01457954735839365 
-0.01457954735839365 
-0.01457954735839365 
-0.01457954735839365 
-0.01457954735839365 
-0.01457954735839365 
-0.01457954735839365 
-0.01457954735839365 
-0.01457954735839365 
-0.01457954735839365 
-0.01457954735839365 
-0.01457954735839365 
-0.01457954735839365 
-0.01457954735839365 
-0.01457954735839365 
-0.01457954735839365 
-0.01457954735839365 
-0.01457954735839365 
-0.01457954735839365 
-0.01457954735839365 
-0.01457954735839365 
-0.01457954735839365 
-0.01457954735839365 
-0.01457954735839365 
-0.01457954735839365 
-0.01457954735839365 
-0.01457954735839365 
-0.01457954735839365 
-0.01457954735839365 
-0.01457954735839365 
-0.01457954735839365 
-0.01457954735839365 
-0.01457954735839365 
-0.01457954735839365 
-0.01457954735839365 
-0.01457954735839365 
-0.01457954735839365 
-0.01457954735839365 
